#include <stdint.h>
#include "model.h"

float layer_0_weights[] = {0.42559206, 0.19323152, -0.16787663, 0.53466725, -0.5013381, 0.18099773, 0.5590372, -0.39457923, 0.028265893, 0.15536559, -0.49140835, -0.0637368, 0.5537306, -0.035240054, 0.0035008192, 0.31565827};
float layer_1_weights[] = {0.4791559, -0.017982125, 0.2660979, 0.24287271, 0.31599927, -0.3813212, 0.2031455, 0.029398799, -0.42820084, -0.19033921, -0.27619755, 0.017414808, 0.11437559, 0.139858, -0.0022404194, -0.46166313, 0.23546672, 0.33692706, -0.38683188, 0.06373894, 0.28046155, 0.4650519, 0.052850008, 0.44724298, 0.17114055, 0.36111796, -0.034593105, -0.28914893, 0.12475312, 0.03361988, -0.2528615, 0.046950936, 0.4090731, 0.2968762, -0.34946966, -0.44123113, -0.40264177, -0.33417606, -0.39421022, -0.15197837, -0.22855926, 0.4414519, 0.005903721, 0.3033378, 0.18059433, 0.48215723, -0.46888232, -0.25433302, -0.29210055, -0.24274445, 0.25248742, 0.27305758, 0.4762764, 0.05081463, 0.34957182, 0.27144837, 0.058809876, 0.49896252, 0.09183836, -0.1937834, 0.28603613, -0.25969577, -0.37871253, -0.07417941, 0.08026552, 0.15577173, 0.04410243, -0.21025741, 0.31757057, -0.25581467, 0.47393, 0.10260236, -0.39429605, -0.0602113, 0.22322083, 0.4493661, 0.41582203, -0.323205, -0.009493351, -0.48169637, 0.19154978, -0.04421723, 0.34523332, 0.37646127, 0.3136108, -0.18056798, -0.27035522, 0.19978118, 0.015582323, -0.3034314, -0.3698913, 0.34620857, -0.42122257, 0.3751843, -0.08448672, -0.44333494, 0.16167021, -0.17794049, 0.1526022, 0.2699113, 0.16452897, -0.22520375, 0.10626781, -0.063716054, 0.48631072, -0.20693898, -0.45854223, -0.2269305, -0.013257384, -0.42160034, -0.46785223, -0.19369102, -0.0016541481, 0.47655642, -0.49471283, 0.30247855, -0.2724098, 0.19739783, 0.037334442, -0.28945744, 0.23953485, -0.28183353, -0.08488047, -0.24762833, 0.4967445, -0.4627155, 0.04520476, 0.13222432};
float layer_2_weights[] = {0.531139, -0.03577423, -0.1823836, -0.48594663, -0.16361845, 0.5569589, -0.6254729, -0.096456885, -0.6663562, -0.6020217, -0.24996221, 0.21729094, -0.2596373, 0.76288533, 0.11806995, -0.32090208};
float layer_3_weights[] = {0.8936349, 0.3859049};

float layer_0_biases[] = {0.0, 0.0, 0.0, 0.0, 0.0, 0.0, 0.0, 0.0, 0.0, 0.0, 0.0, 0.0, 0.0, 0.0, 0.0, 0.0};
float layer_1_biases[] = {0.0, 0.0, 0.0, 0.0, 0.0, 0.0, 0.0, 0.0};
float layer_2_biases[] = {0.0, 0.0};
float layer_3_biases[] = {0.5182156};

int layers_size[N_LAYERS] = {LAYER_0_SIZE, LAYER_1_SIZE, LAYER_2_SIZE, LAYER_3_SIZE};
float *layers_weights[N_LAYERS] = {layer_0_weights, layer_1_weights, layer_2_weights, layer_3_weights};
float *layers_biases[N_LAYERS] = {layer_0_biases, layer_1_biases, layer_2_biases, layer_3_biases};
enum ActivationType layers_activation[N_LAYERS] = {RELU, RELU, RELU, LINEAR};
